<?xml version="1.0"?>
<opencv_storage>
<cascade>
  <stageType>BOOST</stageType>
  <featureType>HAAR</featureType>
  <height>24</height>
  <width>24</width>
  <stageParams>
    <boostType>GAB</boostType>
    <minHitRate>9.9500000476837158e-01</minHitRate>
    <maxFalseAlarm>5.0000000000000000e-01</maxFalseAlarm>
    <weightTrimRate>9.4999999999999996e-01</weightTrimRate>
    <maxDepth>1</maxDepth>
    <maxWeakCount>100</maxWeakCount></stageParams>
  <featureParams>
    <maxCatCount>0</maxCatCount>
    <featSize>1</featSize>
    <mode>BASIC</mode></featureParams>
  <stageNum>20</stageNum>
  <stages>
    <!-- stage 0 -->
    <_>
      <maxWeakCount>5</maxWeakCount>
      <stageThreshold>-1.0696194171905518e+00</stageThreshold>
      <weakClassifiers>
        <_>
          <internalNodes>
            0 -1 15 1.6912991181015968e-02</internalNodes>
          <leafValues>
            -4.4701492786407471e-01 8.1424146890640259e-01</leafValues></_>
        <_>
          <internalNodes>
            0 -1 175 2.4775836209300905e-05</internalNodes>
          <leafValues>
            4.3876484036445618e-01 -8.6861026287078857e-01</leafValues></_>
        <_>
          <internalNodes>
            0 -1 43 2.7180107281310484e-05</internalNodes>
          <leafValues>
            2.7653658390045166e-01 -8.8945233821868896e-01</leafValues></_>
        <_>
          <internalNodes>
            0 -1 24 8.8327797129750252e-03</internalNodes>
          <leafValues>
            -4.3750080466270447e-01 6.1360794305801392e-01</leafValues></_>
        <_>
          <internalNodes>
            0 -1 143 2.2382200768333860e-05</internalNodes>
          <leafValues>
            3.1170246005058289e-01 -8.6123728752136230e-01</leafValues></_></weakClassifiers></_>
    <!-- stage 1 -->
    <_>
      <maxWeakCount>7</maxWeakCount>
      <stageThreshold>-1.0217980146408081e+00</stageThreshold>
      <weakClassifiers>
        <_>
          <internalNodes>
            0 -1 36 -3.3952225930988789e-03</internalNodes>
          <leafValues>
            7.0516884326934814e-01 -4.3650966882705688e-01</leafValues></_>
        <_>
          <internalNodes>
            0 -1 64 8.7478980422019958e-03</internalNodes>
          <leafValues>
            -4.0056282281875610e-01 7.4484729766845703e-01</leafValues></_>
        <_>
          <internalNodes>
            0 -1 97 -7.7410652302205563e-03</internalNodes>
          <leafValues>
            6.1504274606704712e-01 -4.0690588951110840e-01</leafValues></_>
        <_>
          <internalNodes>
            0 -1 163 -8.4613282233476639e-03</internalNodes>
          <leafValues>
            6.8759155273437500e-01 -3.4441167116165161e-01</leafValues></_>
        <_>
          <internalNodes>
            0 -1 25 6.6851377487182617e-03</internalNodes>
          <leafValues>
            -4.2802721261978149e-01 5.8540111780166626e-01</leafValues></_>
        <_>
          <internalNodes>
            0 -1 26 -1.7799451947212219e-02</internalNodes>
          <leafValues>
            7.6240050792694092e-01 -2.7760797739028931e-01</leafValues></_>
        <_>
          <internalNodes>
            0 -1 23 1.6331258416175842e-01</internalNodes>
          <leafValues>
            2.5879889726638794e-01 -9.2621934413909912e-01</leafValues></_></weakClassifiers></_>
    <!-- stage 2 -->
    <_>
      <maxWeakCount>5</maxWeakCount>
      <stageThreshold>-9.3975424766540527e-01</stageThreshold>
      <weakClassifiers>
        <_>
          <internalNodes>
            0 -1 16 -2.7591669559478760e-01</internalNodes>
          <leafValues>
            -8.8645040988922119e-01 5.4021608829498291e-01</leafValues></_>
        <_>
          <internalNodes>
            0 -1 12 -1.4793947339057922e-01</internalNodes>
          <leafValues>
            -9.3372571468353271e-01 2.7308183908462524e-01</leafValues></_>
        <_>
          <internalNodes>
            0 -1 62 1.4433084428310394e-01</internalNodes>
          <leafValues>
            2.7492111921310425e-01 -9.3119633197784424e-01</leafValues></_>
        <_>
          <internalNodes>
            0 -1 83 8.2566300407052040e-03</internalNodes>
          <leafValues>
            -4.5335000753402710e-01 4.4659629464149475e-01</leafValues></_>
        <_>
          <internalNodes>
            0 -1 74 -7.4067227542400360e-03</internalNodes>
          <leafValues>
            5.3308862447738647e-01 -3.6850580573081970e-01</leafValues></_></weakClassifiers></_>
    <!-- stage 3 -->
    <_>
      <maxWeakCount>7</maxWeakCount>
      <stageThreshold>-1.0461688041687012e+00</stageThreshold>
      <weakClassifiers>
        <_>
          <internalNodes>
            0 -1 62 1.5415380895137787e-01</internalNodes>
          <leafValues>
            5.4837036132812500e-01 -8.6764037609100342e-01</leafValues></_>
        <_>
          <internalNodes>
            0 -1 8 -8.8083514128811657e-05</internalNodes>
          <leafValues>
            -8.5651355981826782e-01 2.4582254886627197e-01</leafValues></_>
        <_>
          <internalNodes>
            0 -1 72 -1.4946821611374617e-03</internalNodes>
          <leafValues>
            3.1253316998481750e-01 -5.7050126791000366e-01</leafValues></_>
        <_>
          <internalNodes>
            0 -1 50 -1.7923314590007067e-04</internalNodes>
          <leafValues>
            -8.6348891258239746e-01 2.3666004836559296e-01</leafValues></_>
        <_>
          <internalNodes>
            0 -1 172 2.3172948509454727e-02</internalNodes>
          <leafValues>
            -4.4103518128395081e-01 4.2767655849456787e-01</leafValues></_>
        <_>
          <internalNodes>
            0 -1 31 4.3099573813378811e-03</internalNodes>
          <leafValues>
            -3.7025085091590881e-01 4.9091017246246338e-01</leafValues></_>
        <_>
          <internalNodes>
            0 -1 81 7.5548617169260979e-03</internalNodes>
          <leafValues>
            -2.4449564516544342e-01 6.2723678350448608e-01</leafValues></_></weakClassifiers></_>
    <!-- stage 4 -->
    <_>
      <maxWeakCount>8</maxWeakCount>
      <stageThreshold>-9.6751004457473755e-01</stageThreshold>
      <weakClassifiers>
        <_>
          <internalNodes>
            0 -1 0 -3.7597885238938034e-05</internalNodes>
          <leafValues>
            -8.6068701744079590e-01 5.3558564186096191e-01</leafValues></_>
        <_>
          <internalNodes>
            0 -1 0 3.4332450013607740e-05</internalNodes>
          <leafValues>
            4.4004547595977783e-01 -7.7446722984313965e-01</leafValues></_>
        <_>
          <internalNodes>
            0 -1 54 3.3430062234401703e-02</internalNodes>
          <leafValues>
            -4.3666929006576538e-01 4.5817631483078003e-01</leafValues></_>
        <_>
          <internalNodes>
            0 -1 48 -8.3646140410564840e-05</internalNodes>
          <leafValues>
            -8.9525604248046875e-01 2.0632848143577576e-01</leafValues></_>
        <_>
          <internalNodes>
            0 -1 48 4.1434224840486422e-05</internalNodes>
          <leafValues>
            2.6735499501228333e-01 -6.9842404127120972e-01</leafValues></_>
        <_>
          <internalNodes>
            0 -1 98 -1.2468602508306503e-03</internalNodes>
          <leafValues>
            2.7708062529563904e-01 -5.8539670705795288e-01</leafValues></_>
        <_>
          <internalNodes>
            0 -1 45 -2.0432656630873680e-02</internalNodes>
          <leafValues>
            4.2389154434204102e-01 -4.1731092333793640e-01</leafValues></_>
        <_>
          <internalNodes>
            0 -1 5 1.2953987345099449e-02</internalNodes>
          <leafValues>
            -3.7271896004676819e-01 4.4112905859947205e-01</leafValues></_></weakClassifiers></_>
    <!-- stage 5 -->
    <_>
      <maxWeakCount>9</maxWeakCount>
      <stageThreshold>-8.2730519771575928e-01</stageThreshold>
      <weakClassifiers>
        <_>
          <internalNodes>
            0 -1 9 1.3113707304000854e-02</internalNodes>
          <leafValues>
            -2.3365527391433716e-01 6.8067830801010132e-01</leafValues></_>
        <_>
          <internalNodes>
            0 -1 168 4.4033549784217030e-05</internalNodes>
          <leafValues>
            2.5692394375801086e-01 -8.6412870883941650e-01</leafValues></_>
        <_>
          <internalNodes>
            0 -1 168 -4.3435382394818589e-05</internalNodes>
          <leafValues>
            -6.6388839483261108e-01 2.7529528737068176e-01</leafValues></_>
        <_>
          <internalNodes>
            0 -1 89 1.1045120118069462e-05</internalNodes>
          <leafValues>
            -5.8593052625656128e-01 2.7301508188247681e-01</leafValues></_>
        <_>
          <internalNodes>
            0 -1 166 -8.1090219318866730e-03</internalNodes>
          <leafValues>
            4.3507134914398193e-01 -3.7727093696594238e-01</leafValues></_>
        <_>
          <internalNodes>
            0 -1 126 2.4534892290830612e-02</internalNodes>
          <leafValues>
            -2.0500348508358002e-01 6.7449665069580078e-01</leafValues></_>
        <_>
          <internalNodes>
            0 -1 125 2.4290992878377438e-03</internalNodes>
          <leafValues>
            -2.0620094239711761e-01 7.3083043098449707e-01</leafValues></_>
        <_>
          <internalNodes>
            0 -1 124 2.5017634034156799e-03</internalNodes>
          <leafValues>
            -2.2508260607719421e-01 7.6026993989944458e-01</leafValues></_>
        <_>
          <internalNodes>
            0 -1 127 2.4930862709879875e-03</internalNodes>
          <leafValues>
            -1.8145476281642914e-01 7.1517187356948853e-01</leafValues></_></weakClassifiers></_>
    <!-- stage 6 -->
    <_>
      <maxWeakCount>10</maxWeakCount>
      <stageThreshold>-1.0670180320739746e+00</stageThreshold>
      <weakClassifiers>
        <_>
          <internalNodes>
            0 -1 136 2.8394203400239348e-04</internalNodes>
          <leafValues>
            4.9472796916961670e-01 -7.4776667356491089e-01</leafValues></_>
        <_>
          <internalNodes>
            0 -1 7 4.2453296482563019e-02</internalNodes>
          <leafValues>
            -3.8911622762680054e-01 4.6248292922973633e-01</leafValues></_>
        <_>
          <internalNodes>
            0 -1 135 5.7335820747539401e-04</internalNodes>
          <leafValues>
            2.4518381059169769e-01 -7.9739236831665039e-01</leafValues></_>
        <_>
          <internalNodes>
            0 -1 130 7.9047977924346924e-03</internalNodes>
          <leafValues>
            -3.4772604703903198e-01 4.3724066019058228e-01</leafValues></_>
        <_>
          <internalNodes>
            0 -1 10 -2.1832571655977517e-04</internalNodes>
          <leafValues>
            -7.8004258871078491e-01 1.6178129613399506e-01</leafValues></_>
        <_>
          <internalNodes>
            0 -1 82 8.6526721715927124e-03</internalNodes>
          <leafValues>
            -3.6769655346870422e-01 4.0434557199478149e-01</leafValues></_>
        <_>
          <internalNodes>
            0 -1 123 9.4852701295167208e-04</internalNodes>
          <leafValues>
            1.7979335784912109e-01 -6.4794969558715820e-01</leafValues></_>
        <_>
          <internalNodes>
            0 -1 10 5.3647356253350154e-05</internalNodes>
          <leafValues>
            3.6331069469451904e-01 -3.7647661566734314e-01</leafValues></_>
        <_>
          <internalNodes>
            0 -1 28 6.2735117971897125e-03</internalNodes>
          <leafValues>
            -3.9114326238632202e-01 3.1610596179962158e-01</leafValues></_>
        <_>
          <internalNodes>
            0 -1 68 -1.8147364258766174e-02</internalNodes>
          <leafValues>
            5.0646853446960449e-01 -2.3356944322586060e-01</leafValues></_></weakClassifiers></_>
    <!-- stage 7 -->
    <_>
      <maxWeakCount>6</maxWeakCount>
      <stageThreshold>-4.6934795379638672e-01</stageThreshold>
      <weakClassifiers>
        <_>
          <internalNodes>
            0 -1 1 3.5569377359934151e-05</internalNodes>
          <leafValues>
            5.9454852342605591e-01 -5.7644110918045044e-01</leafValues></_>
        <_>
          <internalNodes>
            0 -1 1 -2.2548654669662938e-05</internalNodes>
          <leafValues>
            -9.6319067478179932e-01 4.2262634634971619e-01</leafValues></_>
        <_>
          <internalNodes>
            0 -1 46 -1.0701208520913497e-04</internalNodes>
          <leafValues>
            -7.7971899509429932e-01 2.2167252004146576e-01</leafValues></_>
        <_>
          <internalNodes>
            0 -1 46 2.4677301553310826e-05</internalNodes>
          <leafValues>
            2.6927980780601501e-01 -9.5186269283294678e-01</leafValues></_>
        <_>
          <internalNodes>
            0 -1 153 -5.1068011089228094e-05</internalNodes>
          <leafValues>
            -6.7145925760269165e-01 1.8564948439598083e-01</leafValues></_>
        <_>
          <internalNodes>
            0 -1 153 7.2712384280748665e-05</internalNodes>
          <leafValues>
            2.2900748252868652e-01 -8.5624736547470093e-01</leafValues></_></weakClassifiers></_>
    <!-- stage 8 -->
    <_>
      <maxWeakCount>8</maxWeakCount>
      <stageThreshold>-8.7204915285110474e-01</stageThreshold>
      <weakClassifiers>
        <_>
          <internalNodes>
            0 -1 159 5.2044062613276765e-05</internalNodes>
          <leafValues>
            5.1084911823272705e-01 -7.4951267242431641e-01</leafValues></_>
        <_>
          <internalNodes>
            0 -1 159 -4.6018176362849772e-05</internalNodes>
          <leafValues>
            -6.8268191814422607e-01 4.2503014206886292e-01</leafValues></_>
        <_>
          <internalNodes>
            0 -1 173 3.2176688546314836e-04</internalNodes>
          <leafValues>
            1.8876932561397552e-01 -8.2499939203262329e-01</leafValues></_>
        <_>
          <internalNodes>
            0 -1 3 -1.1617805284913629e-04</internalNodes>
          <leafValues>
            -8.5992878675460815e-01 1.7889857292175293e-01</leafValues></_>
        <_>
          <internalNodes>
            0 -1 38 3.5945391282439232e-03</internalNodes>
          <leafValues>
            -2.4540719389915466e-01 8.1909364461898804e-01</leafValues></_>
        <_>
          <internalNodes>
            0 -1 18 2.0941605907864869e-04</internalNodes>
          <leafValues>
            3.9584177732467651e-01 -4.5517659187316895e-01</leafValues></_>
        <_>
          <internalNodes>
            0 -1 40 3.9360520895570517e-04</internalNodes>
          <leafValues>
            2.4534688889980316e-01 -8.2364451885223389e-01</leafValues></_>
        <_>
          <internalNodes>
            0 -1 162 -8.2928389310836792e-03</internalNodes>
          <leafValues>
            3.6240074038505554e-01 -4.2384344339370728e-01</leafValues></_></weakClassifiers></_>
    <!-- stage 9 -->
    <_>
      <maxWeakCount>8</maxWeakCount>
      <stageThreshold>-9.8091936111450195e-01</stageThreshold>
      <weakClassifiers>
        <_>
          <internalNodes>
            0 -1 169 7.7399548899848014e-05</internalNodes>
          <leafValues>
            5.5275821685791016e-01 -5.1794177293777466e-01</leafValues></_>
        <_>
          <internalNodes>
            0 -1 160 -7.3408460593782365e-05</internalNodes>
          <leafValues>
            -8.8295793533325195e-01 2.8749614953994751e-01</leafValues></_>
        <_>
          <internalNodes>
            0 -1 176 -2.1616804588120431e-04</internalNodes>
          <leafValues>
            -6.7707258462905884e-01 2.4348910152912140e-01</leafValues></_>
        <_>
          <internalNodes>
            0 -1 39 3.5524670965969563e-03</internalNodes>
          <leafValues>
            -2.3973207175731659e-01 8.1332588195800781e-01</leafValues></_>
        <_>
          <internalNodes>
            0 -1 157 3.1247856095433235e-03</internalNodes>
          <leafValues>
            -2.0721389353275299e-01 8.3264595270156860e-01</leafValues></_>
        <_>
          <internalNodes>
            0 -1 60 -7.1590626612305641e-04</internalNodes>
          <leafValues>
            -6.8791604042053223e-01 3.0909633636474609e-01</leafValues></_>
        <_>
          <internalNodes>
            0 -1 70 4.1142076952382922e-04</internalNodes>
          <leafValues>
            3.0680358409881592e-01 -6.0195487737655640e-01</leafValues></_>
        <_>
          <internalNodes>
            0 -1 120 -3.4534451551735401e-03</internalNodes>
          <leafValues>
            8.4857833385467529e-01 -2.5415831804275513e-01</leafValues></_></weakClassifiers></_>
    <!-- stage 10 -->
    <_>
      <maxWeakCount>10</maxWeakCount>
      <stageThreshold>-8.5403919219970703e-01</stageThreshold>
      <weakClassifiers>
        <_>
          <internalNodes>
            0 -1 109 1.1126109957695007e-01</internalNodes>
          <leafValues>
            4.6546348929405212e-01 -7.8571426868438721e-01</leafValues></_>
        <_>
          <internalNodes>
            0 -1 115 3.6055929958820343e-03</internalNodes>
          <leafValues>
            -2.7603015303611755e-01 6.2369275093078613e-01</leafValues></_>
        <_>
          <internalNodes>
            0 -1 24 3.7978105247020721e-03</internalNodes>
          <leafValues>
            -4.9174615740776062e-01 3.2954430580139160e-01</leafValues></_>
        <_>
          <internalNodes>
            0 -1 155 3.5223206505179405e-03</internalNodes>
          <leafValues>
            -1.7382089793682098e-01 8.1822967529296875e-01</leafValues></_>
        <_>
          <internalNodes>
            0 -1 156 4.0140454657375813e-03</internalNodes>
          <leafValues>
            -2.1512290835380554e-01 7.0583397150039673e-01</leafValues></_>
        <_>
          <internalNodes>
            0 -1 118 -3.8646170869469643e-03</internalNodes>
          <leafValues>
            8.3908039331436157e-01 -1.6512399911880493e-01</leafValues></_>
        <_>
          <internalNodes>
            0 -1 119 4.3637868948280811e-03</internalNodes>
          <leafValues>
            -2.1468102931976318e-01 7.6743918657302856e-01</leafValues></_>
        <_>
          <internalNodes>
            0 -1 154 7.7407788485288620e-03</internalNodes>
          <leafValues>
            -4.2430821061134338e-01 3.3692455291748047e-01</leafValues></_>
        <_>
          <internalNodes>
            0 -1 114 4.1875205934047699e-03</internalNodes>
          <leafValues>
            -2.4784621596336365e-01 5.5664539337158203e-01</leafValues></_>
        <_>
          <internalNodes>
            0 -1 55 8.7723791599273682e-02</internalNodes>
          <leafValues>
            1.7219446599483490e-01 -8.5307043790817261e-01</leafValues></_></weakClassifiers></_>
    <!-- stage 11 -->
    <_>
      <maxWeakCount>7</maxWeakCount>
      <stageThreshold>-1.1791651248931885e+00</stageThreshold>
      <weakClassifiers>
        <_>
          <internalNodes>
            0 -1 150 -3.1891695107333362e-04</internalNodes>
          <leafValues>
            6.7066431045532227e-01 -4.7709283232688904e-01</leafValues></_>
        <_>
          <internalNodes>
            0 -1 21 5.7218770962208509e-04</internalNodes>
          <leafValues>
            -6.0682684183120728e-01 4.8186612129211426e-01</leafValues></_>
        <_>
          <internalNodes>
            0 -1 35 7.1386927738785744e-03</internalNodes>
          <leafValues>
            -4.1534695029258728e-01 4.4458439946174622e-01</leafValues></_>
        <_>
          <internalNodes>
            0 -1 79 -1.6608319128863513e-04</internalNodes>
          <leafValues>
            3.7290313839912415e-01 -4.5831102132797241e-01</leafValues></_>
        <_>
          <internalNodes>
            0 -1 65 1.9596885889768600e-02</internalNodes>
          <leafValues>
            -4.5822513103485107e-01 3.6633446812629700e-01</leafValues></_>
        <_>
          <internalNodes>
            0 -1 145 -1.5123061893973500e-04</internalNodes>
          <leafValues>
            2.9829591512680054e-01 -4.4143044948577881e-01</leafValues></_>
        <_>
          <internalNodes>
            0 -1 106 1.0894319042563438e-02</internalNodes>
          <leafValues>
            -2.0941536128520966e-01 6.9284361600875854e-01</leafValues></_></weakClassifiers></_>
    <!-- stage 12 -->
    <_>
      <maxWeakCount>9</maxWeakCount>
      <stageThreshold>-1.3771985769271851e+00</stageThreshold>
      <weakClassifiers>
        <_>
          <internalNodes>
            0 -1 133 -2.6904530823230743e-03</internalNodes>
          <leafValues>
            6.1748063564300537e-01 -3.4392789006233215e-01</leafValues></_>
        <_>
          <internalNodes>
            0 -1 58 -3.5507702268660069e-03</internalNodes>
          <leafValues>
            4.4606009125709534e-01 -4.7514590620994568e-01</leafValues></_>
        <_>
          <internalNodes>
            0 -1 90 3.2666110200807452e-04</internalNodes>
          <leafValues>
            -4.6727463603019714e-01 3.5208219289779663e-01</leafValues></_>
        <_>
          <internalNodes>
            0 -1 149 -8.3198966458439827e-03</internalNodes>
          <leafValues>
            4.7091567516326904e-01 -3.1275302171707153e-01</leafValues></_>
        <_>
          <internalNodes>
            0 -1 14 8.8797509670257568e-03</internalNodes>
          <leafValues>
            -5.8077174425125122e-01 2.3684035241603851e-01</leafValues></_>
        <_>
          <internalNodes>
            0 -1 67 4.1113262996077538e-03</internalNodes>
          <leafValues>
            -3.0331146717071533e-01 4.7368124127388000e-01</leafValues></_>
        <_>
          <internalNodes>
            0 -1 85 2.6788730174303055e-03</internalNodes>
          <leafValues>
            -2.5223383307456970e-01 4.5462509989738464e-01</leafValues></_>
        <_>
          <internalNodes>
            0 -1 134 -2.9159542173147202e-03</internalNodes>
          <leafValues>
            7.0908474922180176e-01 -1.2903651595115662e-01</leafValues></_>
        <_>
          <internalNodes>
            0 -1 134 3.3260515192523599e-04</internalNodes>
          <leafValues>
            -2.9350894689559937e-01 4.8912140727043152e-01</leafValues></_></weakClassifiers></_>
    <!-- stage 13 -->
    <_>
      <maxWeakCount>12</maxWeakCount>
      <stageThreshold>-1.0126922130584717e+00</stageThreshold>
      <weakClassifiers>
        <_>
          <internalNodes>
            0 -1 11 1.8228801200166345e-03</internalNodes>
          <leafValues>
            -3.5834267735481262e-01 5.6175142526626587e-01</leafValues></_>
        <_>
          <internalNodes>
            0 -1 164 -2.3489724844694138e-03</internalNodes>
          <leafValues>
            3.8010472059249878e-01 -4.7653663158416748e-01</leafValues></_>
        <_>
          <internalNodes>
            0 -1 32 8.6361812427639961e-03</internalNodes>
          <leafValues>
            -3.4079185128211975e-01 4.8238596320152283e-01</leafValues></_>
        <_>
          <internalNodes>
            0 -1 171 -2.1598312741843984e-05</internalNodes>
          <leafValues>
            -7.1834182739257813e-01 1.6133335232734680e-01</leafValues></_>
        <_>
          <internalNodes>
            0 -1 111 2.2266230371315032e-04</internalNodes>
          <leafValues>
            -2.8441119194030762e-01 4.0701997280120850e-01</leafValues></_>
        <_>
          <internalNodes>
            0 -1 108 2.9531219042837620e-03</internalNodes>
          <leafValues>
            -2.6306253671646118e-01 4.6363231539726257e-01</leafValues></_>
        <_>
          <internalNodes>
            0 -1 63 2.0734136342070997e-05</internalNodes>
          <leafValues>
            1.9165182113647461e-01 -5.8954662084579468e-01</leafValues></_>
        <_>
          <internalNodes>
            0 -1 110 2.3096069344319403e-04</internalNodes>
          <leafValues>
            -2.6932930946350098e-01 3.8833844661712646e-01</leafValues></_>
        <_>
          <internalNodes>
            0 -1 101 5.8010109933093190e-04</internalNodes>
          <leafValues>
            -4.0904650092124939e-01 2.5533547997474670e-01</leafValues></_>
        <_>
          <internalNodes>
            0 -1 53 -2.1405914594652131e-05</internalNodes>
          <leafValues>
            -7.4220746755599976e-01 1.3754965364933014e-01</leafValues></_>
        <_>
          <internalNodes>
            0 -1 19 8.2876365631818771e-03</internalNodes>
          <leafValues>
            -4.0419769287109375e-01 2.6104128360748291e-01</leafValues></_>
        <_>
          <internalNodes>
            0 -1 100 5.4096955806016922e-02</internalNodes>
          <leafValues>
            1.2593267858028412e-01 -7.5638777017593384e-01</leafValues></_></weakClassifiers></_>
    <!-- stage 14 -->
    <_>
      <maxWeakCount>13</maxWeakCount>
      <stageThreshold>-9.3895411491394043e-01</stageThreshold>
      <weakClassifiers>
        <_>
          <internalNodes>
            0 -1 2 -1.9395167328184471e-05</internalNodes>
          <leafValues>
            -7.9435849189758301e-01 4.1985937952995300e-01</leafValues></_>
        <_>
          <internalNodes>
            0 -1 20 9.0815738076344132e-06</internalNodes>
          <leafValues>
            -4.8896390199661255e-01 2.9649344086647034e-01</leafValues></_>
        <_>
          <internalNodes>
            0 -1 33 -1.7169969156384468e-02</internalNodes>
          <leafValues>
            2.9847827553749084e-01 -4.0252992510795593e-01</leafValues></_>
        <_>
          <internalNodes>
            0 -1 107 2.7067149057984352e-02</internalNodes>
          <leafValues>
            -2.4630190432071686e-01 4.8890274763107300e-01</leafValues></_>
        <_>
          <internalNodes>
            0 -1 140 -7.9866666346788406e-03</internalNodes>
          <leafValues>
            5.3989511728286743e-01 -2.0763966441154480e-01</leafValues></_>
        <_>
          <internalNodes>
            0 -1 102 -8.7236339822993614e-06</internalNodes>
          <leafValues>
            4.6363615989685059e-01 -2.4841047823429108e-01</leafValues></_>
        <_>
          <internalNodes>
            0 -1 102 8.4559005699702539e-06</internalNodes>
          <leafValues>
            -4.0362042188644409e-01 5.2794259786605835e-01</leafValues></_>
        <_>
          <internalNodes>
            0 -1 17 2.3039545339997858e-05</internalNodes>
          <leafValues>
            2.5451725721359253e-01 -5.1637113094329834e-01</leafValues></_>
        <_>
          <internalNodes>
            0 -1 102 -8.7236339822993614e-06</internalNodes>
          <leafValues>
            3.6866953969001770e-01 -2.9959735274314880e-01</leafValues></_>
        <_>
          <internalNodes>
            0 -1 61 -2.8614638373255730e-02</internalNodes>
          <leafValues>
            5.9197646379470825e-01 -1.6719555854797363e-01</leafValues></_>
        <_>
          <internalNodes>
            0 -1 80 1.7434824258089066e-02</internalNodes>
          <leafValues>
            -2.4434591829776764e-01 4.7493883967399597e-01</leafValues></_>
        <_>
          <internalNodes>
            0 -1 104 5.1287305541336536e-03</internalNodes>
          <leafValues>
            -1.3927747309207916e-01 6.6940212249755859e-01</leafValues></_>
        <_>
          <internalNodes>
            0 -1 113 -4.1428003460168839e-03</internalNodes>
          <leafValues>
            7.1549570560455322e-01 -1.7402476072311401e-01</leafValues></_></weakClassifiers></_>
    <!-- stage 15 -->
    <_>
      <maxWeakCount>11</maxWeakCount>
      <stageThreshold>-7.0398831367492676e-01</stageThreshold>
      <weakClassifiers>
        <_>
          <internalNodes>
            0 -1 152 4.7953042667359114e-04</internalNodes>
          <leafValues>
            4.3367347121238708e-01 -8.2207578420639038e-01</leafValues></_>
        <_>
          <internalNodes>
            0 -1 161 1.7637437209486961e-02</internalNodes>
          <leafValues>
            -3.1493210792541504e-01 4.0946346521377563e-01</leafValues></_>
        <_>
          <internalNodes>
            0 -1 77 -4.2406335473060608e-02</internalNodes>
          <leafValues>
            -8.2070124149322510e-01 1.1366351693868637e-01</leafValues></_>
        <_>
          <internalNodes>
            0 -1 78 4.8500929027795792e-02</internalNodes>
          <leafValues>
            1.2014376372098923e-01 -8.2030177116394043e-01</leafValues></_>
        <_>
          <internalNodes>
            0 -1 51 -4.0885317139327526e-04</internalNodes>
          <leafValues>
            -7.9346799850463867e-01 9.2565208673477173e-02</leafValues></_>
        <_>
          <internalNodes>
            0 -1 129 3.0951241496950388e-03</internalNodes>
          <leafValues>
            -1.7986935377120972e-01 5.8303320407867432e-01</leafValues></_>
        <_>
          <internalNodes>
            0 -1 129 -3.8889693096280098e-03</internalNodes>
          <leafValues>
            6.6452038288116455e-01 -2.2101452946662903e-01</leafValues></_>
        <_>
          <internalNodes>
            0 -1 116 -8.5312594819697551e-06</internalNodes>
          <leafValues>
            4.1352561116218567e-01 -2.0382037758827209e-01</leafValues></_>
        <_>
          <internalNodes>
            0 -1 116 8.4835273810313083e-06</internalNodes>
          <leafValues>
            -3.3279451727867126e-01 5.3763478994369507e-01</leafValues></_>
        <_>
          <internalNodes>
            0 -1 152 -5.4209322115639225e-05</internalNodes>
          <leafValues>
            -3.9013859629631042e-01 2.7151677012443542e-01</leafValues></_>
        <_>
          <internalNodes>
            0 -1 167 -3.9052879437804222e-03</internalNodes>
          <leafValues>
            7.3468291759490967e-01 -1.6002064943313599e-01</leafValues></_></weakClassifiers></_>
    <!-- stage 16 -->
    <_>
      <maxWeakCount>15</maxWeakCount>
      <stageThreshold>-9.6703326702117920e-01</stageThreshold>
      <weakClassifiers>
        <_>
          <internalNodes>
            0 -1 43 2.1352032490540296e-05</internalNodes>
          <leafValues>
            4.1921189427375793e-01 -7.6428574323654175e-01</leafValues></_>
        <_>
          <internalNodes>
            0 -1 43 -8.7894222815521061e-06</internalNodes>
          <leafValues>
            -4.0655592083930969e-01 3.5861396789550781e-01</leafValues></_>
        <_>
          <internalNodes>
            0 -1 144 8.4990430623292923e-03</internalNodes>
          <leafValues>
            -4.0146639943122864e-01 3.0940997600555420e-01</leafValues></_>
        <_>
          <internalNodes>
            0 -1 69 -7.1512712165713310e-03</internalNodes>
          <leafValues>
            3.0020383000373840e-01 -3.1541979312896729e-01</leafValues></_>
        <_>
          <internalNodes>
            0 -1 147 -1.6657661646604538e-02</internalNodes>
          <leafValues>
            4.2300343513488770e-01 -2.1506899595260620e-01</leafValues></_>
        <_>
          <internalNodes>
            0 -1 91 -8.6538493633270264e-06</internalNodes>
          <leafValues>
            3.3690872788429260e-01 -2.8137081861495972e-01</leafValues></_>
        <_>
          <internalNodes>
            0 -1 92 -8.5823894551140256e-06</internalNodes>
          <leafValues>
            3.9688584208488464e-01 -2.5363898277282715e-01</leafValues></_>
        <_>
          <internalNodes>
            0 -1 92 8.5715146269649267e-06</internalNodes>
          <leafValues>
            -2.7173134684562683e-01 3.8539677858352661e-01</leafValues></_>
        <_>
          <internalNodes>
            0 -1 6 -9.1270430857548490e-06</internalNodes>
          <leafValues>
            -8.5288149118423462e-01 1.1608642339706421e-01</leafValues></_>
        <_>
          <internalNodes>
            0 -1 56 -2.3349691182374954e-02</internalNodes>
          <leafValues>
            -6.4906293153762817e-01 1.1198323220014572e-01</leafValues></_>
        <_>
          <internalNodes>
            0 -1 73 4.0069711394608021e-03</internalNodes>
          <leafValues>
            -2.6605078577995300e-01 3.2767984271049500e-01</leafValues></_>
        <_>
          <internalNodes>
            0 -1 6 2.2968932171352208e-05</internalNodes>
          <leafValues>
            2.3575675487518311e-01 -4.1008111834526062e-01</leafValues></_>
        <_>
          <internalNodes>
            0 -1 64 8.9465482160449028e-03</internalNodes>
          <leafValues>
            -3.7124118208885193e-01 2.5688397884368896e-01</leafValues></_>
        <_>
          <internalNodes>
            0 -1 30 -9.0740285813808441e-03</internalNodes>
          <leafValues>
            5.7902884483337402e-01 -1.6788914799690247e-01</leafValues></_>
        <_>
          <internalNodes>
            0 -1 137 4.1242986917495728e-03</internalNodes>
          <leafValues>
            -1.7504593729972839e-01 4.5378026366233826e-01</leafValues></_></weakClassifiers></_>
    <!-- stage 17 -->
    <_>
      <maxWeakCount>20</maxWeakCount>
      <stageThreshold>-1.0957536697387695e+00</stageThreshold>
      <weakClassifiers>
        <_>
          <internalNodes>
            0 -1 1 9.1956126198056154e-06</internalNodes>
          <leafValues>
            4.5437407493591309e-01 -4.1255390644073486e-01</leafValues></_>
        <_>
          <internalNodes>
            0 -1 151 -8.6740627884864807e-03</internalNodes>
          <leafValues>
            3.3434733748435974e-01 -3.1956818699836731e-01</leafValues></_>
        <_>
          <internalNodes>
            0 -1 22 -9.2861633747816086e-03</internalNodes>
          <leafValues>
            3.0317181348800659e-01 -2.9803335666656494e-01</leafValues></_>
        <_>
          <internalNodes>
            0 -1 115 2.7038631960749626e-03</internalNodes>
          <leafValues>
            -2.5223109126091003e-01 3.3607372641563416e-01</leafValues></_>
        <_>
          <internalNodes>
            0 -1 131 9.7902268171310425e-03</internalNodes>
          <leafValues>
            -2.7749970555305481e-01 3.1837418675422668e-01</leafValues></_>
        <_>
          <internalNodes>
            0 -1 41 8.7730791419744492e-03</internalNodes>
          <leafValues>
            -1.5687064826488495e-01 4.6486347913742065e-01</leafValues></_>
        <_>
          <internalNodes>
            0 -1 27 -3.1703554093837738e-02</internalNodes>
          <leafValues>
            5.2619534730911255e-01 -1.7441086471080780e-01</leafValues></_>
        <_>
          <internalNodes>
            0 -1 141 8.7211692516575567e-06</internalNodes>
          <leafValues>
            -2.2053869068622589e-01 3.6181762814521790e-01</leafValues></_>
        <_>
          <internalNodes>
            0 -1 141 -8.8590913946973160e-06</internalNodes>
          <leafValues>
            3.6420011520385742e-01 -2.1521496772766113e-01</leafValues></_>
        <_>
          <internalNodes>
            0 -1 117 -6.7731854505836964e-03</internalNodes>
          <leafValues>
            6.4626491069793701e-01 -1.2578089535236359e-01</leafValues></_>
        <_>
          <internalNodes>
            0 -1 119 -8.2419216632843018e-03</internalNodes>
          <leafValues>
            6.8545663356781006e-01 -1.1954021453857422e-01</leafValues></_>
        <_>
          <internalNodes>
            0 -1 47 -5.1732640713453293e-04</internalNodes>
          <leafValues>
            -8.7495845556259155e-01 1.1144222319126129e-01</leafValues></_>
        <_>
          <internalNodes>
            0 -1 121 -7.0776850916445255e-03</internalNodes>
          <leafValues>
            5.1097446680068970e-01 -1.7021855711936951e-01</leafValues></_>
        <_>
          <internalNodes>
            0 -1 122 -4.0840222500264645e-03</internalNodes>
          <leafValues>
            6.0916072130203247e-01 -1.2125153839588165e-01</leafValues></_>
        <_>
          <internalNodes>
            0 -1 15 2.4901349097490311e-02</internalNodes>
          <leafValues>
            -3.9254257082939148e-01 2.2890424728393555e-01</leafValues></_>
        <_>
          <internalNodes>
            0 -1 59 -6.4653824083507061e-03</internalNodes>
          <leafValues>
            1.7707908153533936e-01 -4.3349686264991760e-01</leafValues></_>
        <_>
          <internalNodes>
            0 -1 158 8.7769694800954312e-06</internalNodes>
          <leafValues>
            8.7950639426708221e-02 -8.0794769525527954e-01</leafValues></_>
        <_>
          <internalNodes>
            0 -1 114 2.8826240450143814e-03</internalNodes>
          <leafValues>
            -2.2520922124385834e-01 3.3383071422576904e-01</leafValues></_>
        <_>
          <internalNodes>
            0 -1 87 5.6485570967197418e-02</internalNodes>
          <leafValues>
            8.4272794425487518e-02 -8.1068706512451172e-01</leafValues></_>
        <_>
          <internalNodes>
            0 -1 86 -2.7308542281389236e-02</internalNodes>
          <leafValues>
            -6.4536982774734497e-01 1.0333065688610077e-01</leafValues></_></weakClassifiers></_>
    <!-- stage 18 -->
    <_>
      <maxWeakCount>19</maxWeakCount>
      <stageThreshold>-9.5901960134506226e-01</stageThreshold>
      <weakClassifiers>
        <_>
          <internalNodes>
            0 -1 174 9.2915943241678178e-06</internalNodes>
          <leafValues>
            4.1849169135093689e-01 -6.7693591117858887e-01</leafValues></_>
        <_>
          <internalNodes>
            0 -1 52 1.3165720738470554e-02</internalNodes>
          <leafValues>
            -3.0684047937393188e-01 3.1641009449958801e-01</leafValues></_>
        <_>
          <internalNodes>
            0 -1 174 -2.1679452402167954e-05</internalNodes>
          <leafValues>
            -3.0001974105834961e-01 3.0525434017181396e-01</leafValues></_>
        <_>
          <internalNodes>
            0 -1 146 3.3059217035770416e-02</internalNodes>
          <leafValues>
            -1.9677644968032837e-01 5.5494940280914307e-01</leafValues></_>
        <_>
          <internalNodes>
            0 -1 112 -8.3607155829668045e-03</internalNodes>
          <leafValues>
            6.4997279644012451e-01 -1.2149233371019363e-01</leafValues></_>
        <_>
          <internalNodes>
            0 -1 103 4.7344053164124489e-03</internalNodes>
          <leafValues>
            -2.1423840522766113e-01 5.0307387113571167e-01</leafValues></_>
        <_>
          <internalNodes>
            0 -1 139 -4.9338145181536674e-03</internalNodes>
          <leafValues>
            2.7381888031959534e-01 -2.8573423624038696e-01</leafValues></_>
        <_>
          <internalNodes>
            0 -1 99 -3.4148102713515982e-05</internalNodes>
          <leafValues>
            1.9385382533073425e-01 -3.8389000296592712e-01</leafValues></_>
        <_>
          <internalNodes>
            0 -1 88 3.8438436604337767e-05</internalNodes>
          <leafValues>
            -1.9767652451992035e-01 4.1074746847152710e-01</leafValues></_>
        <_>
          <internalNodes>
            0 -1 88 -8.6143900261959061e-06</internalNodes>
          <leafValues>
            3.6558899283409119e-01 -2.9107916355133057e-01</leafValues></_>
        <_>
          <internalNodes>
            0 -1 93 3.1733782961964607e-03</internalNodes>
          <leafValues>
            -1.4179281890392303e-01 5.3909945487976074e-01</leafValues></_>
        <_>
          <internalNodes>
            0 -1 94 5.5704088881611824e-03</internalNodes>
          <leafValues>
            -1.4530780911445618e-01 5.3783518075942993e-01</leafValues></_>
        <_>
          <internalNodes>
            0 -1 49 -9.0833445938187651e-06</internalNodes>
          <leafValues>
            -8.0087673664093018e-01 1.0839681327342987e-01</leafValues></_>
        <_>
          <internalNodes>
            0 -1 105 -7.1321036666631699e-03</internalNodes>
          <leafValues>
            5.6102198362350464e-01 -1.4016005396842957e-01</leafValues></_>
        <_>
          <internalNodes>
            0 -1 75 -7.3974490165710449e-02</internalNodes>
          <leafValues>
            -7.7226984500885010e-01 1.0636905580759048e-01</leafValues></_>
        <_>
          <internalNodes>
            0 -1 57 8.7692495435476303e-03</internalNodes>
          <leafValues>
            -2.4753069877624512e-01 2.8992411494255066e-01</leafValues></_>
        <_>
          <internalNodes>
            0 -1 44 1.0689359623938799e-03</internalNodes>
          <leafValues>
            1.0322299599647522e-01 -6.7161172628402710e-01</leafValues></_>
        <_>
          <internalNodes>
            0 -1 66 2.3808699916116893e-04</internalNodes>
          <leafValues>
            -2.1424783766269684e-01 3.2729655504226685e-01</leafValues></_>
        <_>
          <internalNodes>
            0 -1 170 -8.9611339717521332e-06</internalNodes>
          <leafValues>
            -7.5478106737136841e-01 1.0008436441421509e-01</leafValues></_></weakClassifiers></_>
    <!-- stage 19 -->
    <_>
      <maxWeakCount>22</maxWeakCount>
      <stageThreshold>-9.6358191967010498e-01</stageThreshold>
      <weakClassifiers>
        <_>
          <internalNodes>
            0 -1 4 -2.6890502340393141e-05</internalNodes>
          <leafValues>
            -5.9466218948364258e-01 4.1046261787414551e-01</leafValues></_>
        <_>
          <internalNodes>
            0 -1 165 -4.7520990483462811e-03</internalNodes>
          <leafValues>
            3.2118013501167297e-01 -2.9238006472587585e-01</leafValues></_>
        <_>
          <internalNodes>
            0 -1 29 1.3140935450792313e-02</internalNodes>
          <leafValues>
            -2.5625219941139221e-01 3.1006219983100891e-01</leafValues></_>
        <_>
          <internalNodes>
            0 -1 95 -9.8057407885789871e-03</internalNodes>
          <leafValues>
            3.4936460852622986e-01 -2.0721682906150818e-01</leafValues></_>
        <_>
          <internalNodes>
            0 -1 138 -1.7914339900016785e-02</internalNodes>
          <leafValues>
            4.1057783365249634e-01 -1.9330233335494995e-01</leafValues></_>
        <_>
          <internalNodes>
            0 -1 142 8.6618365457979962e-06</internalNodes>
          <leafValues>
            -2.2375084459781647e-01 3.2488635182380676e-01</leafValues></_>
        <_>
          <internalNodes>
            0 -1 160 1.8035509128822014e-05</internalNodes>
          <leafValues>
            1.7862080037593842e-01 -4.2798119783401489e-01</leafValues></_>
        <_>
          <internalNodes>
            0 -1 148 8.4686098489328288e-06</internalNodes>
          <leafValues>
            -2.6138871908187866e-01 3.0295944213867188e-01</leafValues></_>
        <_>
          <internalNodes>
            0 -1 132 -4.3335203081369400e-03</internalNodes>
          <leafValues>
            5.7606750726699829e-01 -1.2567438185214996e-01</leafValues></_>
        <_>
          <internalNodes>
            0 -1 132 2.5696924421936274e-03</internalNodes>
          <leafValues>
            -1.7423038184642792e-01 5.0637924671173096e-01</leafValues></_>
        <_>
          <internalNodes>
            0 -1 172 1.6873400658369064e-02</internalNodes>
          <leafValues>
            -3.1153279542922974e-01 2.2925385832786560e-01</leafValues></_>
        <_>
          <internalNodes>
            0 -1 84 6.3807800412178040e-02</internalNodes>
          <leafValues>
            7.6838143169879913e-02 -7.5663816928863525e-01</leafValues></_>
        <_>
          <internalNodes>
            0 -1 71 5.2924904972314835e-02</internalNodes>
          <leafValues>
            9.0240336954593658e-02 -6.9478869438171387e-01</leafValues></_>
        <_>
          <internalNodes>
            0 -1 42 2.0625324395950884e-05</internalNodes>
          <leafValues>
            7.5091980397701263e-02 -7.1963518857955933e-01</leafValues></_>
        <_>
          <internalNodes>
            0 -1 37 3.9718365296721458e-03</internalNodes>
          <leafValues>
            -1.2741135060787201e-01 5.6080418825149536e-01</leafValues></_>
        <_>
          <internalNodes>
            0 -1 76 2.6294331997632980e-02</internalNodes>
          <leafValues>
            -1.2007585167884827e-01 5.1645863056182861e-01</leafValues></_>
        <_>
          <internalNodes>
            0 -1 13 -2.4254148826003075e-02</internalNodes>
          <leafValues>
            4.8524707555770874e-01 -1.8554662168025970e-01</leafValues></_>
        <_>
          <internalNodes>
            0 -1 96 4.7458820044994354e-02</internalNodes>
          <leafValues>
            9.7534857690334320e-02 -7.4982005357742310e-01</leafValues></_>
        <_>
          <internalNodes>
            0 -1 169 -8.7736179921193980e-06</internalNodes>
          <leafValues>
            -8.4053349494934082e-01 6.4871624112129211e-02</leafValues></_>
        <_>
          <internalNodes>
            0 -1 128 7.4752664659172297e-05</internalNodes>
          <leafValues>
            -2.2898687422275543e-01 2.9717221856117249e-01</leafValues></_>
        <_>
          <internalNodes>
            0 -1 128 -8.9391933215665631e-06</internalNodes>
          <leafValues>
            3.3496561646461487e-01 -2.2940464317798615e-01</leafValues></_>
        <_>
          <internalNodes>
            0 -1 34 -2.6254434138536453e-02</internalNodes>
          <leafValues>
            -7.8388988971710205e-01 8.2380712032318115e-02</leafValues></_></weakClassifiers></_></stages>
  <features>
    <_>
      <rects>
        <_>
          0 0 2 1 -1.</_>
        <_>
          1 0 1 1 2.</_></rects>
      <tilted>0</tilted></_>
    <_>
      <rects>
        <_>
          0 0 1 2 -1.</_>
        <_>
          0 1 1 1 2.</_></rects>
      <tilted>0</tilted></_>
    <_>
      <rects>
        <_>
          0 0 1 4 -1.</_>
        <_>
          0 2 1 2 2.</_></rects>
      <tilted>0</tilted></_>
    <_>
      <rects>
        <_>
          0 0 1 6 -1.</_>
        <_>
          0 3 1 3 2.</_></rects>
      <tilted>0</tilted></_>
    <_>
      <rects>
        <_>
          0 0 1 8 -1.</_>
        <_>
          0 4 1 4 2.</_></rects>
      <tilted>0</tilted></_>
    <_>
      <rects>
        <_>
          0 0 2 24 -1.</_>
        <_>
          1 0 1 24 2.</_></rects>
      <tilted>0</tilted></_>
    <_>
      <rects>
        <_>
          0 0 4 1 -1.</_>
        <_>
          2 0 2 1 2.</_></rects>
      <tilted>0</tilted></_>
    <_>
      <rects>
        <_>
          0 0 2 24 -1.</_>
        <_>
          0 8 2 8 3.</_></rects>
      <tilted>0</tilted></_>
    <_>
      <rects>
        <_>
          0 0 6 1 -1.</_>
        <_>
          3 0 3 1 2.</_></rects>
      <tilted>0</tilted></_>
    <_>
      <rects>
        <_>
          0 0 3 10 -1.</_>
        <_>
          0 5 3 5 2.</_></rects>
      <tilted>0</tilted></_>
    <_>
      <rects>
        <_>
          0 0 8 1 -1.</_>
        <_>
          4 0 4 1 2.</_></rects>
      <tilted>0</tilted></_>
    <_>
      <rects>
        <_>
          0 0 12 5 -1.</_>
        <_>
          6 0 6 5 2.</_></rects>
      <tilted>0</tilted></_>
    <_>
      <rects>
        <_>
          0 0 22 24 -1.</_>
        <_>
          11 0 11 24 2.</_></rects>
      <tilted>0</tilted></_>
    <_>
      <rects>
        <_>
          0 0 24 4 -1.</_>
        <_>
          0 0 12 2 2.</_>
        <_>
          12 2 12 2 2.</_></rects>
      <tilted>0</tilted></_>
    <_>
      <rects>
        <_>
          0 0 23 4 -1.</_>
        <_>
          0 2 23 2 2.</_></rects>
      <tilted>0</tilted></_>
    <_>
      <rects>
        <_>
          0 0 24 4 -1.</_>
        <_>
          0 2 24 2 2.</_></rects>
      <tilted>0</tilted></_>
    <_>
      <rects>
        <_>
          0 0 24 22 -1.</_>
        <_>
          0 11 24 11 2.</_></rects>
      <tilted>0</tilted></_>
    <_>
      <rects>
        <_>
          0 1 1 2 -1.</_>
        <_>
          0 2 1 1 2.</_></rects>
      <tilted>0</tilted></_>
    <_>
      <rects>
        <_>
          0 1 1 4 -1.</_>
        <_>
          0 3 1 2 2.</_></rects>
      <tilted>0</tilted></_>
    <_>
      <rects>
        <_>
          0 1 2 21 -1.</_>
        <_>
          1 1 1 21 2.</_></rects>
      <tilted>0</tilted></_>
    <_>
      <rects>
        <_>
          0 1 4 6 -1.</_>
        <_>
          2 1 2 6 2.</_></rects>
      <tilted>0</tilted></_>
    <_>
      <rects>
        <_>
          0 1 6 5 -1.</_>
        <_>
          3 1 3 5 2.</_></rects>
      <tilted>0</tilted></_>
    <_>
      <rects>
        <_>
          0 2 6 8 -1.</_>
        <_>
          0 2 3 4 2.</_>
        <_>
          3 6 3 4 2.</_></rects>
      <tilted>0</tilted></_>
    <_>
      <rects>
        <_>
          0 2 23 22 -1.</_>
        <_>
          0 13 23 11 2.</_></rects>
      <tilted>0</tilted></_>
    <_>
      <rects>
        <_>
          0 3 2 18 -1.</_>
        <_>
          1 3 1 18 2.</_></rects>
      <tilted>0</tilted></_>
    <_>
      <rects>
        <_>
          0 3 2 19 -1.</_>
        <_>
          1 3 1 19 2.</_></rects>
      <tilted>0</tilted></_>
    <_>
      <rects>
        <_>
          0 3 4 12 -1.</_>
        <_>
          0 3 2 6 2.</_>
        <_>
          2 9 2 6 2.</_></rects>
      <tilted>0</tilted></_>
    <_>
      <rects>
        <_>
          0 3 4 14 -1.</_>
        <_>
          0 3 2 7 2.</_>
        <_>
          2 10 2 7 2.</_></rects>
      <tilted>0</tilted></_>
    <_>
      <rects>
        <_>
          0 4 2 17 -1.</_>
        <_>
          1 4 1 17 2.</_></rects>
      <tilted>0</tilted></_>
    <_>
      <rects>
        <_>
          0 5 1 15 -1.</_>
        <_>
          0 10 1 5 3.</_></rects>
      <tilted>0</tilted></_>
    <_>
      <rects>
        <_>
          0 5 2 10 -1.</_>
        <_>
          0 5 1 5 2.</_>
        <_>
          1 10 1 5 2.</_></rects>
      <tilted>0</tilted></_>
    <_>
      <rects>
        <_>
          0 6 3 12 -1.</_>
        <_>
          1 6 1 12 3.</_></rects>
      <tilted>0</tilted></_>
    <_>
      <rects>
        <_>
          0 11 4 10 -1.</_>
        <_>
          0 11 2 5 2.</_>
        <_>
          2 16 2 5 2.</_></rects>
      <tilted>0</tilted></_>
    <_>
      <rects>
        <_>
          0 12 2 12 -1.</_>
        <_>
          0 18 2 6 2.</_></rects>
      <tilted>0</tilted></_>
    <_>
      <rects>
        <_>
          0 12 24 4 -1.</_>
        <_>
          0 14 24 2 2.</_></rects>
      <tilted>0</tilted></_>
    <_>
      <rects>
        <_>
          0 13 6 10 -1.</_>
        <_>
          0 13 3 5 2.</_>
        <_>
          3 18 3 5 2.</_></rects>
      <tilted>0</tilted></_>
    <_>
      <rects>
        <_>
          0 14 3 10 -1.</_>
        <_>
          0 19 3 5 2.</_></rects>
      <tilted>0</tilted></_>
    <_>
      <rects>
        <_>
          0 15 2 1 -1.</_>
        <_>
          1 15 1 1 2.</_></rects>
      <tilted>0</tilted></_>
    <_>
      <rects>
        <_>
          0 16 2 1 -1.</_>
        <_>
          1 16 1 1 2.</_></rects>
      <tilted>0</tilted></_>
    <_>
      <rects>
        <_>
          0 16 3 1 -1.</_>
        <_>
          1 16 1 1 3.</_></rects>
      <tilted>0</tilted></_>
    <_>
      <rects>
        <_>
          0 16 1 8 -1.</_>
        <_>
          0 20 1 4 2.</_></rects>
      <tilted>0</tilted></_>
    <_>
      <rects>
        <_>
          0 16 6 2 -1.</_>
        <_>
          2 16 2 2 3.</_></rects>
      <tilted>0</tilted></_>
    <_>
      <rects>
        <_>
          0 18 1 6 -1.</_>
        <_>
          0 21 1 3 2.</_></rects>
      <tilted>0</tilted></_>
    <_>
      <rects>
        <_>
          0 20 1 4 -1.</_>
        <_>
          0 22 1 2 2.</_></rects>
      <tilted>0</tilted></_>
    <_>
      <rects>
        <_>
          0 20 2 4 -1.</_>
        <_>
          0 20 1 2 2.</_>
        <_>
          1 22 1 2 2.</_></rects>
      <tilted>0</tilted></_>
    <_>
      <rects>
        <_>
          0 20 24 4 -1.</_>
        <_>
          0 22 24 2 2.</_></rects>
      <tilted>0</tilted></_>
    <_>
      <rects>
        <_>
          0 22 1 2 -1.</_>
        <_>
          0 23 1 1 2.</_></rects>
      <tilted>0</tilted></_>
    <_>
      <rects>
        <_>
          0 22 2 2 -1.</_>
        <_>
          1 22 1 2 2.</_></rects>
      <tilted>0</tilted></_>
    <_>
      <rects>
        <_>
          0 23 2 1 -1.</_>
        <_>
          1 23 1 1 2.</_></rects>
      <tilted>0</tilted></_>
    <_>
      <rects>
        <_>
          0 23 4 1 -1.</_>
        <_>
          2 23 2 1 2.</_></rects>
      <tilted>0</tilted></_>
    <_>
      <rects>
        <_>
          0 23 6 1 -1.</_>
        <_>
          3 23 3 1 2.</_></rects>
      <tilted>0</tilted></_>
    <_>
      <rects>
        <_>
          0 23 8 1 -1.</_>
        <_>
          4 23 4 1 2.</_></rects>
      <tilted>0</tilted></_>
    <_>
      <rects>
        <_>
          1 0 3 8 -1.</_>
        <_>
          1 4 3 4 2.</_></rects>
      <tilted>0</tilted></_>
    <_>
      <rects>
        <_>
          1 0 21 2 -1.</_>
        <_>
          1 1 21 1 2.</_></rects>
      <tilted>0</tilted></_>
    <_>
      <rects>
        <_>
          1 0 23 4 -1.</_>
        <_>
          1 2 23 2 2.</_></rects>
      <tilted>0</tilted></_>
    <_>
      <rects>
        <_>
          1 4 19 16 -1.</_>
        <_>
          1 12 19 8 2.</_></rects>
      <tilted>0</tilted></_>
    <_>
      <rects>
        <_>
          1 10 17 6 -1.</_>
        <_>
          1 13 17 3 2.</_></rects>
      <tilted>0</tilted></_>
    <_>
      <rects>
        <_>
          1 12 4 10 -1.</_>
        <_>
          1 12 2 5 2.</_>
        <_>
          3 17 2 5 2.</_></rects>
      <tilted>0</tilted></_>
    <_>
      <rects>
        <_>
          1 18 3 6 -1.</_>
        <_>
          1 21 3 3 2.</_></rects>
      <tilted>0</tilted></_>
    <_>
      <rects>
        <_>
          1 20 23 4 -1.</_>
        <_>
          1 22 23 2 2.</_></rects>
      <tilted>0</tilted></_>
    <_>
      <rects>
        <_>
          2 0 8 1 -1.</_>
        <_>
          6 0 4 1 2.</_></rects>
      <tilted>0</tilted></_>
    <_>
      <rects>
        <_>
          2 0 18 4 -1.</_>
        <_>
          2 0 9 2 2.</_>
        <_>
          11 2 9 2 2.</_></rects>
      <tilted>0</tilted></_>
    <_>
      <rects>
        <_>
          2 0 22 24 -1.</_>
        <_>
          13 0 11 24 2.</_></rects>
      <tilted>0</tilted></_>
    <_>
      <rects>
        <_>
          2 22 21 2 -1.</_>
        <_>
          2 23 21 1 2.</_></rects>
      <tilted>0</tilted></_>
    <_>
      <rects>
        <_>
          3 0 18 2 -1.</_>
        <_>
          3 1 18 1 2.</_></rects>
      <tilted>0</tilted></_>
    <_>
      <rects>
        <_>
          3 0 19 4 -1.</_>
        <_>
          3 2 19 2 2.</_></rects>
      <tilted>0</tilted></_>
    <_>
      <rects>
        <_>
          3 14 3 1 -1.</_>
        <_>
          4 14 1 1 3.</_></rects>
      <tilted>0</tilted></_>
    <_>
      <rects>
        <_>
          3 15 9 1 -1.</_>
        <_>
          6 15 3 1 3.</_></rects>
      <tilted>0</tilted></_>
    <_>
      <rects>
        <_>
          3 20 6 4 -1.</_>
        <_>
          3 22 6 2 2.</_></rects>
      <tilted>0</tilted></_>
    <_>
      <rects>
        <_>
          3 22 19 2 -1.</_>
        <_>
          3 23 19 1 2.</_></rects>
      <tilted>0</tilted></_>
    <_>
      <rects>
        <_>
          4 0 4 1 -1.</_>
        <_>
          6 0 2 1 2.</_></rects>
      <tilted>0</tilted></_>
    <_>
      <rects>
        <_>
          4 0 12 14 -1.</_>
        <_>
          8 0 4 14 3.</_></rects>
      <tilted>0</tilted></_>
    <_>
      <rects>
        <_>
          4 11 15 3 -1.</_>
        <_>
          9 11 5 3 3.</_></rects>
      <tilted>0</tilted></_>
    <_>
      <rects>
        <_>
          4 12 6 2 -1.</_>
        <_>
          6 12 2 2 3.</_></rects>
      <tilted>0</tilted></_>
    <_>
      <rects>
        <_>
          4 22 17 2 -1.</_>
        <_>
          4 23 17 1 2.</_></rects>
      <tilted>0</tilted></_>
    <_>
      <rects>
        <_>
          5 0 10 24 -1.</_>
        <_>
          10 0 5 24 2.</_></rects>
      <tilted>0</tilted></_>
    <_>
      <rects>
        <_>
          5 0 16 4 -1.</_>
        <_>
          5 0 8 2 2.</_>
        <_>
          13 2 8 2 2.</_></rects>
      <tilted>0</tilted></_>
    <_>
      <rects>
        <_>
          5 7 14 10 -1.</_>
        <_>
          12 7 7 10 2.</_></rects>
      <tilted>0</tilted></_>
    <_>
      <rects>
        <_>
          5 9 16 7 -1.</_>
        <_>
          13 9 8 7 2.</_></rects>
      <tilted>0</tilted></_>
    <_>
      <rects>
        <_>
          5 12 8 1 -1.</_>
        <_>
          9 12 4 1 2.</_></rects>
      <tilted>0</tilted></_>
    <_>
      <rects>
        <_>
          5 18 5 6 -1.</_>
        <_>
          5 20 5 2 3.</_></rects>
      <tilted>0</tilted></_>
    <_>
      <rects>
        <_>
          6 0 2 4 -1.</_>
        <_>
          6 2 2 2 2.</_></rects>
      <tilted>0</tilted></_>
    <_>
      <rects>
        <_>
          6 0 13 2 -1.</_>
        <_>
          6 1 13 1 2.</_></rects>
      <tilted>0</tilted></_>
    <_>
      <rects>
        <_>
          6 0 14 2 -1.</_>
        <_>
          6 1 14 1 2.</_></rects>
      <tilted>0</tilted></_>
    <_>
      <rects>
        <_>
          7 0 10 24 -1.</_>
        <_>
          12 0 5 24 2.</_></rects>
      <tilted>0</tilted></_>
    <_>
      <rects>
        <_>
          7 8 1 9 -1.</_>
        <_>
          7 11 1 3 3.</_></rects>
      <tilted>0</tilted></_>
    <_>
      <rects>
        <_>
          7 17 12 7 -1.</_>
        <_>
          11 17 4 7 3.</_></rects>
      <tilted>0</tilted></_>
    <_>
      <rects>
        <_>
          8 1 9 22 -1.</_>
        <_>
          11 1 3 22 3.</_></rects>
      <tilted>0</tilted></_>
    <_>
      <rects>
        <_>
          9 10 2 2 -1.</_>
        <_>
          9 10 1 1 2.</_>
        <_>
          10 11 1 1 2.</_></rects>
      <tilted>0</tilted></_>
    <_>
      <rects>
        <_>
          9 11 10 3 -1.</_>
        <_>
          14 11 5 3 2.</_></rects>
      <tilted>0</tilted></_>
    <_>
      <rects>
        <_>
          9 11 5 6 -1.</_>
        <_>
          9 14 5 3 2.</_></rects>
      <tilted>0</tilted></_>
    <_>
      <rects>
        <_>
          9 12 2 2 -1.</_>
        <_>
          10 12 1 2 2.</_></rects>
      <tilted>0</tilted></_>
    <_>
      <rects>
        <_>
          9 13 2 2 -1.</_>
        <_>
          9 13 1 1 2.</_>
        <_>
          10 14 1 1 2.</_></rects>
      <tilted>0</tilted></_>
    <_>
      <rects>
        <_>
          9 18 1 3 -1.</_>
        <_>
          9 19 1 1 3.</_></rects>
      <tilted>0</tilted></_>
    <_>
      <rects>
        <_>
          9 19 2 3 -1.</_>
        <_>
          9 20 2 1 3.</_></rects>
      <tilted>0</tilted></_>
    <_>
      <rects>
        <_>
          10 1 6 6 -1.</_>
        <_>
          10 4 6 3 2.</_></rects>
      <tilted>0</tilted></_>
    <_>
      <rects>
        <_>
          10 4 11 16 -1.</_>
        <_>
          10 12 11 8 2.</_></rects>
      <tilted>0</tilted></_>
    <_>
      <rects>
        <_>
          10 8 3 9 -1.</_>
        <_>
          10 11 3 3 3.</_></rects>
      <tilted>0</tilted></_>
    <_>
      <rects>
        <_>
          10 8 4 9 -1.</_>
        <_>
          10 11 4 3 3.</_></rects>
      <tilted>0</tilted></_>
    <_>
      <rects>
        <_>
          10 9 3 4 -1.</_>
        <_>
          10 11 3 2 2.</_></rects>
      <tilted>0</tilted></_>
    <_>
      <rects>
        <_>
          10 9 14 12 -1.</_>
        <_>
          10 15 14 6 2.</_></rects>
      <tilted>0</tilted></_>
    <_>
      <rects>
        <_>
          10 11 10 2 -1.</_>
        <_>
          15 11 5 2 2.</_></rects>
      <tilted>0</tilted></_>
    <_>
      <rects>
        <_>
          10 13 2 2 -1.</_>
        <_>
          10 13 1 1 2.</_>
        <_>
          11 14 1 1 2.</_></rects>
      <tilted>0</tilted></_>
    <_>
      <rects>
        <_>
          10 17 2 3 -1.</_>
        <_>
          10 18 2 1 3.</_></rects>
      <tilted>0</tilted></_>
    <_>
      <rects>
        <_>
          10 18 2 3 -1.</_>
        <_>
          10 19 2 1 3.</_></rects>
      <tilted>0</tilted></_>
    <_>
      <rects>
        <_>
          10 19 2 3 -1.</_>
        <_>
          10 20 2 1 3.</_></rects>
      <tilted>0</tilted></_>
    <_>
      <rects>
        <_>
          10 19 4 4 -1.</_>
        <_>
          10 21 4 2 2.</_></rects>
      <tilted>0</tilted></_>
    <_>
      <rects>
        <_>
          11 0 8 6 -1.</_>
        <_>
          11 2 8 2 3.</_></rects>
      <tilted>0</tilted></_>
    <_>
      <rects>
        <_>
          11 3 1 6 -1.</_>
        <_>
          11 5 1 2 3.</_></rects>
      <tilted>0</tilted></_>
    <_>
      <rects>
        <_>
          11 3 11 18 -1.</_>
        <_>
          11 9 11 6 3.</_></rects>
      <tilted>0</tilted></_>
    <_>
      <rects>
        <_>
          11 5 1 4 -1.</_>
        <_>
          11 7 1 2 2.</_></rects>
      <tilted>0</tilted></_>
    <_>
      <rects>
        <_>
          11 5 1 6 -1.</_>
        <_>
          11 8 1 3 2.</_></rects>
      <tilted>0</tilted></_>
    <_>
      <rects>
        <_>
          11 17 2 3 -1.</_>
        <_>
          11 18 2 1 3.</_></rects>
      <tilted>0</tilted></_>
    <_>
      <rects>
        <_>
          11 18 1 3 -1.</_>
        <_>
          11 19 1 1 3.</_></rects>
      <tilted>0</tilted></_>
    <_>
      <rects>
        <_>
          12 5 1 6 -1.</_>
        <_>
          12 7 1 2 3.</_></rects>
      <tilted>0</tilted></_>
    <_>
      <rects>
        <_>
          12 7 1 6 -1.</_>
        <_>
          12 9 1 2 3.</_></rects>
      <tilted>0</tilted></_>
    <_>
      <rects>
        <_>
          12 12 2 2 -1.</_>
        <_>
          12 12 1 1 2.</_>
        <_>
          13 13 1 1 2.</_></rects>
      <tilted>0</tilted></_>
    <_>
      <rects>
        <_>
          12 16 2 3 -1.</_>
        <_>
          12 17 2 1 3.</_></rects>
      <tilted>0</tilted></_>
    <_>
      <rects>
        <_>
          12 17 1 3 -1.</_>
        <_>
          12 18 1 1 3.</_></rects>
      <tilted>0</tilted></_>
    <_>
      <rects>
        <_>
          12 17 2 3 -1.</_>
        <_>
          12 18 2 1 3.</_></rects>
      <tilted>0</tilted></_>
    <_>
      <rects>
        <_>
          12 18 1 3 -1.</_>
        <_>
          12 19 1 1 3.</_></rects>
      <tilted>0</tilted></_>
    <_>
      <rects>
        <_>
          12 18 2 3 -1.</_>
        <_>
          12 19 2 1 3.</_></rects>
      <tilted>0</tilted></_>
    <_>
      <rects>
        <_>
          12 19 1 3 -1.</_>
        <_>
          12 20 1 1 3.</_></rects>
      <tilted>0</tilted></_>
    <_>
      <rects>
        <_>
          13 0 8 1 -1.</_>
        <_>
          17 0 4 1 2.</_></rects>
      <tilted>0</tilted></_>
    <_>
      <rects>
        <_>
          13 17 1 3 -1.</_>
        <_>
          13 18 1 1 3.</_></rects>
      <tilted>0</tilted></_>
    <_>
      <rects>
        <_>
          13 18 1 3 -1.</_>
        <_>
          13 19 1 1 3.</_></rects>
      <tilted>0</tilted></_>
    <_>
      <rects>
        <_>
          13 18 6 6 -1.</_>
        <_>
          13 20 6 2 3.</_></rects>
      <tilted>0</tilted></_>
    <_>
      <rects>
        <_>
          13 19 1 3 -1.</_>
        <_>
          13 20 1 1 3.</_></rects>
      <tilted>0</tilted></_>
    <_>
      <rects>
        <_>
          14 7 4 2 -1.</_>
        <_>
          14 7 2 1 2.</_>
        <_>
          16 8 2 1 2.</_></rects>
      <tilted>0</tilted></_>
    <_>
      <rects>
        <_>
          14 18 1 3 -1.</_>
        <_>
          14 19 1 1 3.</_></rects>
      <tilted>0</tilted></_>
    <_>
      <rects>
        <_>
          15 10 6 3 -1.</_>
        <_>
          17 10 2 3 3.</_></rects>
      <tilted>0</tilted></_>
    <_>
      <rects>
        <_>
          15 10 6 4 -1.</_>
        <_>
          17 10 2 4 3.</_></rects>
      <tilted>0</tilted></_>
    <_>
      <rects>
        <_>
          15 17 1 3 -1.</_>
        <_>
          15 18 1 1 3.</_></rects>
      <tilted>0</tilted></_>
    <_>
      <rects>
        <_>
          16 0 8 5 -1.</_>
        <_>
          20 0 4 5 2.</_></rects>
      <tilted>0</tilted></_>
    <_>
      <rects>
        <_>
          16 17 1 3 -1.</_>
        <_>
          16 18 1 1 3.</_></rects>
      <tilted>0</tilted></_>
    <_>
      <rects>
        <_>
          16 23 8 1 -1.</_>
        <_>
          20 23 4 1 2.</_></rects>
      <tilted>0</tilted></_>
    <_>
      <rects>
        <_>
          18 0 6 1 -1.</_>
        <_>
          21 0 3 1 2.</_></rects>
      <tilted>0</tilted></_>
    <_>
      <rects>
        <_>
          18 7 6 1 -1.</_>
        <_>
          20 7 2 1 3.</_></rects>
      <tilted>0</tilted></_>
    <_>
      <rects>
        <_>
          18 11 6 4 -1.</_>
        <_>
          20 11 2 4 3.</_></rects>
      <tilted>0</tilted></_>
    <_>
      <rects>
        <_>
          18 19 6 4 -1.</_>
        <_>
          21 19 3 4 2.</_></rects>
      <tilted>0</tilted></_>
    <_>
      <rects>
        <_>
          18 20 2 4 -1.</_>
        <_>
          18 22 2 2 2.</_></rects>
      <tilted>0</tilted></_>
    <_>
      <rects>
        <_>
          19 11 3 1 -1.</_>
        <_>
          20 11 1 1 3.</_></rects>
      <tilted>0</tilted></_>
    <_>
      <rects>
        <_>
          19 12 3 2 -1.</_>
        <_>
          20 12 1 2 3.</_></rects>
      <tilted>0</tilted></_>
    <_>
      <rects>
        <_>
          20 0 4 1 -1.</_>
        <_>
          22 0 2 1 2.</_></rects>
      <tilted>0</tilted></_>
    <_>
      <rects>
        <_>
          20 0 2 6 -1.</_>
        <_>
          20 3 2 3 2.</_></rects>
      <tilted>0</tilted></_>
    <_>
      <rects>
        <_>
          20 1 4 5 -1.</_>
        <_>
          22 1 2 5 2.</_></rects>
      <tilted>0</tilted></_>
    <_>
      <rects>
        <_>
          20 2 4 16 -1.</_>
        <_>
          20 2 2 8 2.</_>
        <_>
          22 10 2 8 2.</_></rects>
      <tilted>0</tilted></_>
    <_>
      <rects>
        <_>
          20 10 4 12 -1.</_>
        <_>
          20 10 2 6 2.</_>
        <_>
          22 16 2 6 2.</_></rects>
      <tilted>0</tilted></_>
    <_>
      <rects>
        <_>
          20 12 3 1 -1.</_>
        <_>
          21 12 1 1 3.</_></rects>
      <tilted>0</tilted></_>
    <_>
      <rects>
        <_>
          20 12 4 10 -1.</_>
        <_>
          20 12 2 5 2.</_>
        <_>
          22 17 2 5 2.</_></rects>
      <tilted>0</tilted></_>
    <_>
      <rects>
        <_>
          20 16 4 8 -1.</_>
        <_>
          20 20 4 4 2.</_></rects>
      <tilted>0</tilted></_>
    <_>
      <rects>
        <_>
          20 18 3 6 -1.</_>
        <_>
          20 21 3 3 2.</_></rects>
      <tilted>0</tilted></_>
    <_>
      <rects>
        <_>
          20 23 4 1 -1.</_>
        <_>
          22 23 2 1 2.</_></rects>
      <tilted>0</tilted></_>
    <_>
      <rects>
        <_>
          21 0 2 1 -1.</_>
        <_>
          22 0 1 1 2.</_></rects>
      <tilted>0</tilted></_>
    <_>
      <rects>
        <_>
          21 0 3 10 -1.</_>
        <_>
          21 5 3 5 2.</_></rects>
      <tilted>0</tilted></_>
    <_>
      <rects>
        <_>
          21 7 3 1 -1.</_>
        <_>
          22 7 1 1 3.</_></rects>
      <tilted>0</tilted></_>
    <_>
      <rects>
        <_>
          21 15 3 2 -1.</_>
        <_>
          22 15 1 2 3.</_></rects>
      <tilted>0</tilted></_>
    <_>
      <rects>
        <_>
          21 16 3 1 -1.</_>
        <_>
          22 16 1 1 3.</_></rects>
      <tilted>0</tilted></_>
    <_>
      <rects>
        <_>
          22 0 2 1 -1.</_>
        <_>
          23 0 1 1 2.</_></rects>
      <tilted>0</tilted></_>
    <_>
      <rects>
        <_>
          22 0 2 2 -1.</_>
        <_>
          23 0 1 2 2.</_></rects>
      <tilted>0</tilted></_>
    <_>
      <rects>
        <_>
          22 0 2 2 -1.</_>
        <_>
          22 1 2 1 2.</_></rects>
      <tilted>0</tilted></_>
    <_>
      <rects>
        <_>
          22 0 2 12 -1.</_>
        <_>
          22 6 2 6 2.</_></rects>
      <tilted>0</tilted></_>
    <_>
      <rects>
        <_>
          22 1 2 18 -1.</_>
        <_>
          23 1 1 18 2.</_></rects>
      <tilted>0</tilted></_>
    <_>
      <rects>
        <_>
          22 2 2 20 -1.</_>
        <_>
          23 2 1 20 2.</_></rects>
      <tilted>0</tilted></_>
    <_>
      <rects>
        <_>
          22 3 2 19 -1.</_>
        <_>
          23 3 1 19 2.</_></rects>
      <tilted>0</tilted></_>
    <_>
      <rects>
        <_>
          22 4 2 16 -1.</_>
        <_>
          23 4 1 16 2.</_></rects>
      <tilted>0</tilted></_>
    <_>
      <rects>
        <_>
          22 4 2 20 -1.</_>
        <_>
          23 4 1 20 2.</_></rects>
      <tilted>0</tilted></_>
    <_>
      <rects>
        <_>
          22 17 2 1 -1.</_>
        <_>
          23 17 1 1 2.</_></rects>
      <tilted>0</tilted></_>
    <_>
      <rects>
        <_>
          22 23 2 1 -1.</_>
        <_>
          23 23 1 1 2.</_></rects>
      <tilted>0</tilted></_>
    <_>
      <rects>
        <_>
          23 0 1 2 -1.</_>
        <_>
          23 1 1 1 2.</_></rects>
      <tilted>0</tilted></_>
    <_>
      <rects>
        <_>
          23 0 1 4 -1.</_>
        <_>
          23 2 1 2 2.</_></rects>
      <tilted>0</tilted></_>
    <_>
      <rects>
        <_>
          23 0 1 8 -1.</_>
        <_>
          23 4 1 4 2.</_></rects>
      <tilted>0</tilted></_>
    <_>
      <rects>
        <_>
          23 0 1 24 -1.</_>
        <_>
          23 8 1 8 3.</_></rects>
      <tilted>0</tilted></_>
    <_>
      <rects>
        <_>
          23 14 1 10 -1.</_>
        <_>
          23 19 1 5 2.</_></rects>
      <tilted>0</tilted></_>
    <_>
      <rects>
        <_>
          23 18 1 6 -1.</_>
        <_>
          23 21 1 3 2.</_></rects>
      <tilted>0</tilted></_>
    <_>
      <rects>
        <_>
          23 20 1 4 -1.</_>
        <_>
          23 22 1 2 2.</_></rects>
      <tilted>0</tilted></_>
    <_>
      <rects>
        <_>
          23 21 1 2 -1.</_>
        <_>
          23 22 1 1 2.</_></rects>
      <tilted>0</tilted></_></features></cascade>
</opencv_storage>
