<?xml version="1.0"?>
<opencv_storage>
<stage11>
  <maxWeakCount>7</maxWeakCount>
  <stageThreshold>-1.1791651248931885e+00</stageThreshold>
  <weakClassifiers>
    <_>
      <internalNodes>
        0 -1 159547 -3.1891695107333362e-04</internalNodes>
      <leafValues>
        6.7066431045532227e-01 -4.7709283232688904e-01</leafValues></_>
    <_>
      <internalNodes>
        0 -1 1274 5.7218770962208509e-04</internalNodes>
      <leafValues>
        -6.0682684183120728e-01 4.8186612129211426e-01</leafValues></_>
    <_>
      <internalNodes>
        0 -1 10652 7.1386927738785744e-03</internalNodes>
      <leafValues>
        -4.1534695029258728e-01 4.4458439946174622e-01</leafValues></_>
    <_>
      <internalNodes>
        0 -1 68240 -1.6608319128863513e-04</internalNodes>
      <leafValues>
        3.7290313839912415e-01 -4.5831102132797241e-01</leafValues></_>
    <_>
      <internalNodes>
        0 -1 38870 1.9596885889768600e-02</internalNodes>
      <leafValues>
        -4.5822513103485107e-01 3.6633446812629700e-01</leafValues></_>
    <_>
      <internalNodes>
        0 -1 157867 -1.5123061893973500e-04</internalNodes>
      <leafValues>
        2.9829591512680054e-01 -4.4143044948577881e-01</leafValues></_>
    <_>
      <internalNodes>
        0 -1 114130 1.0894319042563438e-02</internalNodes>
      <leafValues>
        -2.0941536128520966e-01 6.9284361600875854e-01</leafValues></_></weakClassifiers></stage11>
</opencv_storage>
